digraph Tree {
node [shape=box, style="filled, rounded", color="black", fontname="helvetica"] ;
edge [fontname="helvetica"] ;
0 [label="physician-fee-freeze <= 0.5\ngini = 0.474\nsamples = 374\nvalue = [230, 144]", fillcolor="#f5d0b5"] ;
1 [label="duty-free-exports <= 0.5\ngini = 0.026\nsamples = 224\nvalue = [221, 3]", fillcolor="#e5833c"] ;
0 -> 1 [labeldistance=2.5, labelangle=45, headlabel="True"] ;
2 [label="synfuels-corporation-cutback <= 0.5\ngini = 0.069\nsamples = 84\nvalue = [81, 3]", fillcolor="#e68640"] ;
1 -> 2 ;
3 [label="education-spending <= 0.5\ngini = 0.127\nsamples = 44\nvalue = [41, 3]", fillcolor="#e78a47"] ;
2 -> 3 ;
4 [label="adoption-of-the-budget-resolution <= 0.5\ngini = 0.097\nsamples = 39\nvalue = [37, 2]", fillcolor="#e68844"] ;
3 -> 4 ;
5 [label="religious-groups-in-schools <= 0.5\ngini = 0.444\nsamples = 3\nvalue = [2, 1]", fillcolor="#f2c09c"] ;
4 -> 5 ;
6 [label="gini = 0.0\nsamples = 1\nvalue = [0, 1]", fillcolor="#399de5"] ;
5 -> 6 ;
7 [label="gini = 0.0\nsamples = 2\nvalue = [2, 0]", fillcolor="#e58139"] ;
5 -> 7 ;
8 [label="el-salvador-aid <= 0.5\ngini = 0.054\nsamples = 36\nvalue = [35, 1]", fillcolor="#e6853f"] ;
4 -> 8 ;
9 [label="gini = 0.0\nsamples = 29\nvalue = [29, 0]", fillcolor="#e58139"] ;
8 -> 9 ;
10 [label="anti-satellite-test-ban <= 0.5\ngini = 0.245\nsamples = 7\nvalue = [6, 1]", fillcolor="#e9965a"] ;
8 -> 10 ;
11 [label="gini = 0.0\nsamples = 4\nvalue = [4, 0]", fillcolor="#e58139"] ;
10 -> 11 ;
12 [label="water-project-cost-sharing <= 0.5\ngini = 0.444\nsamples = 3\nvalue = [2, 1]", fillcolor="#f2c09c"] ;
10 -> 12 ;
13 [label="gini = 0.0\nsamples = 2\nvalue = [2, 0]", fillcolor="#e58139"] ;
12 -> 13 ;
14 [label="gini = 0.0\nsamples = 1\nvalue = [0, 1]", fillcolor="#399de5"] ;
12 -> 14 ;
15 [label="anti-satellite-test-ban <= 0.5\ngini = 0.32\nsamples = 5\nvalue = [4, 1]", fillcolor="#eca06a"] ;
3 -> 15 ;
16 [label="adoption-of-the-budget-resolution <= 0.5\ngini = 0.5\nsamples = 2\nvalue = [1, 1]", fillcolor="#ffffff"] ;
15 -> 16 ;
17 [label="gini = 0.0\nsamples = 1\nvalue = [1, 0]", fillcolor="#e58139"] ;
16 -> 17 ;
18 [label="gini = 0.0\nsamples = 1\nvalue = [0, 1]", fillcolor="#399de5"] ;
16 -> 18 ;
19 [label="gini = 0.0\nsamples = 3\nvalue = [3, 0]", fillcolor="#e58139"] ;
15 -> 19 ;
20 [label="gini = 0.0\nsamples = 40\nvalue = [40, 0]", fillcolor="#e58139"] ;
2 -> 20 ;
21 [label="gini = 0.0\nsamples = 140\nvalue = [140, 0]", fillcolor="#e58139"] ;
1 -> 21 ;
22 [label="synfuels-corporation-cutback <= 0.5\ngini = 0.113\nsamples = 150\nvalue = [9, 141]", fillcolor="#46a3e7"] ;
0 -> 22 [labeldistance=2.5, labelangle=-45, headlabel="False"] ;
23 [label="duty-free-exports <= 0.5\ngini = 0.016\nsamples = 125\nvalue = [1, 124]", fillcolor="#3b9ee5"] ;
22 -> 23 ;
24 [label="gini = 0.0\nsamples = 113\nvalue = [0, 113]", fillcolor="#399de5"] ;
23 -> 24 ;
25 [label="immigration <= 0.5\ngini = 0.153\nsamples = 12\nvalue = [1, 11]", fillcolor="#4ba6e7"] ;
23 -> 25 ;
26 [label="mx-missile <= 0.5\ngini = 0.444\nsamples = 3\nvalue = [1, 2]", fillcolor="#9ccef2"] ;
25 -> 26 ;
27 [label="gini = 0.0\nsamples = 2\nvalue = [0, 2]", fillcolor="#399de5"] ;
26 -> 27 ;
28 [label="gini = 0.0\nsamples = 1\nvalue = [1, 0]", fillcolor="#e58139"] ;
26 -> 28 ;
29 [label="gini = 0.0\nsamples = 9\nvalue = [0, 9]", fillcolor="#399de5"] ;
25 -> 29 ;
30 [label="mx-missile <= 0.5\ngini = 0.435\nsamples = 25\nvalue = [8, 17]", fillcolor="#96cbf1"] ;
22 -> 30 ;
31 [label="adoption-of-the-budget-resolution <= 0.5\ngini = 0.32\nsamples = 20\nvalue = [4, 16]", fillcolor="#6ab6ec"] ;
30 -> 31 ;
32 [label="immigration <= 0.5\ngini = 0.219\nsamples = 16\nvalue = [2, 14]", fillcolor="#55abe9"] ;
31 -> 32 ;
33 [label="water-project-cost-sharing <= 0.5\ngini = 0.32\nsamples = 10\nvalue = [2, 8]", fillcolor="#6ab6ec"] ;
32 -> 33 ;
34 [label="handicapped-infants <= 0.5\ngini = 0.444\nsamples = 3\nvalue = [1, 2]", fillcolor="#9ccef2"] ;
33 -> 34 ;
35 [label="export-administration-act-south-africa <= 0.5\ngini = 0.5\nsamples = 2\nvalue = [1, 1]", fillcolor="#ffffff"] ;
34 -> 35 ;
36 [label="gini = 0.0\nsamples = 1\nvalue = [1, 0]", fillcolor="#e58139"] ;
35 -> 36 ;
37 [label="gini = 0.0\nsamples = 1\nvalue = [0, 1]", fillcolor="#399de5"] ;
35 -> 37 ;
38 [label="gini = 0.0\nsamples = 1\nvalue = [0, 1]", fillcolor="#399de5"] ;
34 -> 38 ;
39 [label="education-spending <= 0.5\ngini = 0.245\nsamples = 7\nvalue = [1, 6]", fillcolor="#5aade9"] ;
33 -> 39 ;
40 [label="handicapped-infants <= 0.5\ngini = 0.444\nsamples = 3\nvalue = [1, 2]", fillcolor="#9ccef2"] ;
39 -> 40 ;
41 [label="gini = 0.0\nsamples = 1\nvalue = [0, 1]", fillcolor="#399de5"] ;
40 -> 41 ;
42 [label="gini = 0.5\nsamples = 2\nvalue = [1, 1]", fillcolor="#ffffff"] ;
40 -> 42 ;
43 [label="gini = 0.0\nsamples = 4\nvalue = [0, 4]", fillcolor="#399de5"] ;
39 -> 43 ;
44 [label="gini = 0.0\nsamples = 6\nvalue = [0, 6]", fillcolor="#399de5"] ;
32 -> 44 ;
45 [label="water-project-cost-sharing <= 0.5\ngini = 0.5\nsamples = 4\nvalue = [2, 2]", fillcolor="#ffffff"] ;
31 -> 45 ;
46 [label="gini = 0.0\nsamples = 2\nvalue = [0, 2]", fillcolor="#399de5"] ;
45 -> 46 ;
47 [label="gini = 0.0\nsamples = 2\nvalue = [2, 0]", fillcolor="#e58139"] ;
45 -> 47 ;
48 [label="immigration <= 0.5\ngini = 0.32\nsamples = 5\nvalue = [4, 1]", fillcolor="#eca06a"] ;
30 -> 48 ;
49 [label="gini = 0.0\nsamples = 3\nvalue = [3, 0]", fillcolor="#e58139"] ;
48 -> 49 ;
50 [label="el-salvador-aid <= 0.5\ngini = 0.5\nsamples = 2\nvalue = [1, 1]", fillcolor="#ffffff"] ;
48 -> 50 ;
51 [label="gini = 0.0\nsamples = 1\nvalue = [0, 1]", fillcolor="#399de5"] ;
50 -> 51 ;
52 [label="gini = 0.0\nsamples = 1\nvalue = [1, 0]", fillcolor="#e58139"] ;
50 -> 52 ;
}