digraph Tree {
node [shape=box, style="filled, rounded", color="black", fontname="helvetica"] ;
edge [fontname="helvetica"] ;
0 [label="physician-fee-freeze <= 0.5\ngini = 0.478\nsamples = 364\nvalue = [220, 144]", fillcolor="#f6d3bb"] ;
1 [label="adoption-of-the-budget-resolution <= 0.5\ngini = 0.037\nsamples = 212\nvalue = [208, 4]", fillcolor="#e6833d"] ;
0 -> 1 [labeldistance=2.5, labelangle=45, headlabel="True"] ;
2 [label="synfuels-corporation-cutback <= 0.5\ngini = 0.198\nsamples = 18\nvalue = [16, 2]", fillcolor="#e89152"] ;
1 -> 2 ;
3 [label="water-project-cost-sharing <= 0.5\ngini = 0.408\nsamples = 7\nvalue = [5, 2]", fillcolor="#efb388"] ;
2 -> 3 ;
4 [label="aid-to-nicaraguan-contras <= 0.5\ngini = 0.5\nsamples = 4\nvalue = [2, 2]", fillcolor="#ffffff"] ;
3 -> 4 ;
5 [label="gini = 0.0\nsamples = 1\nvalue = [0, 1]", fillcolor="#399de5"] ;
4 -> 5 ;
6 [label="duty-free-exports <= 0.5\ngini = 0.444\nsamples = 3\nvalue = [2, 1]", fillcolor="#f2c09c"] ;
4 -> 6 ;
7 [label="gini = 0.0\nsamples = 1\nvalue = [0, 1]", fillcolor="#399de5"] ;
6 -> 7 ;
8 [label="gini = 0.0\nsamples = 2\nvalue = [2, 0]", fillcolor="#e58139"] ;
6 -> 8 ;
9 [label="gini = 0.0\nsamples = 3\nvalue = [3, 0]", fillcolor="#e58139"] ;
3 -> 9 ;
10 [label="gini = 0.0\nsamples = 11\nvalue = [11, 0]", fillcolor="#e58139"] ;
2 -> 10 ;
11 [label="el-salvador-aid <= 0.5\ngini = 0.02\nsamples = 194\nvalue = [192, 2]", fillcolor="#e5823b"] ;
1 -> 11 ;
12 [label="gini = 0.0\nsamples = 162\nvalue = [162, 0]", fillcolor="#e58139"] ;
11 -> 12 ;
13 [label="synfuels-corporation-cutback <= 0.5\ngini = 0.117\nsamples = 32\nvalue = [30, 2]", fillcolor="#e78946"] ;
11 -> 13 ;
14 [label="handicapped-infants <= 0.5\ngini = 0.32\nsamples = 10\nvalue = [8, 2]", fillcolor="#eca06a"] ;
13 -> 14 ;
15 [label="anti-satellite-test-ban <= 0.5\ngini = 0.444\nsamples = 6\nvalue = [4, 2]", fillcolor="#f2c09c"] ;
14 -> 15 ;
16 [label="gini = 0.0\nsamples = 2\nvalue = [2, 0]", fillcolor="#e58139"] ;
15 -> 16 ;
17 [label="duty-free-exports <= 0.5\ngini = 0.5\nsamples = 4\nvalue = [2, 2]", fillcolor="#ffffff"] ;
15 -> 17 ;
18 [label="gini = 0.444\nsamples = 3\nvalue = [1, 2]", fillcolor="#9ccef2"] ;
17 -> 18 ;
19 [label="gini = 0.0\nsamples = 1\nvalue = [1, 0]", fillcolor="#e58139"] ;
17 -> 19 ;
20 [label="gini = 0.0\nsamples = 4\nvalue = [4, 0]", fillcolor="#e58139"] ;
14 -> 20 ;
21 [label="gini = 0.0\nsamples = 22\nvalue = [22, 0]", fillcolor="#e58139"] ;
13 -> 21 ;
22 [label="synfuels-corporation-cutback <= 0.5\ngini = 0.145\nsamples = 152\nvalue = [12, 140]", fillcolor="#4aa5e7"] ;
0 -> 22 [labeldistance=2.5, labelangle=-45, headlabel="False"] ;
23 [label="duty-free-exports <= 0.5\ngini = 0.031\nsamples = 125\nvalue = [2, 123]", fillcolor="#3c9fe5"] ;
22 -> 23 ;
24 [label="adoption-of-the-budget-resolution <= 0.5\ngini = 0.017\nsamples = 115\nvalue = [1, 114]", fillcolor="#3b9ee5"] ;
23 -> 24 ;
25 [label="gini = 0.0\nsamples = 102\nvalue = [0, 102]", fillcolor="#399de5"] ;
24 -> 25 ;
26 [label="anti-satellite-test-ban <= 0.5\ngini = 0.142\nsamples = 13\nvalue = [1, 12]", fillcolor="#49a5e7"] ;
24 -> 26 ;
27 [label="immigration <= 0.5\ngini = 0.375\nsamples = 4\nvalue = [1, 3]", fillcolor="#7bbeee"] ;
26 -> 27 ;
28 [label="gini = 0.0\nsamples = 1\nvalue = [1, 0]", fillcolor="#e58139"] ;
27 -> 28 ;
29 [label="gini = 0.0\nsamples = 3\nvalue = [0, 3]", fillcolor="#399de5"] ;
27 -> 29 ;
30 [label="gini = 0.0\nsamples = 9\nvalue = [0, 9]", fillcolor="#399de5"] ;
26 -> 30 ;
31 [label="water-project-cost-sharing <= 0.5\ngini = 0.18\nsamples = 10\nvalue = [1, 9]", fillcolor="#4fa8e8"] ;
23 -> 31 ;
32 [label="gini = 0.0\nsamples = 8\nvalue = [0, 8]", fillcolor="#399de5"] ;
31 -> 32 ;
33 [label="anti-satellite-test-ban <= 0.5\ngini = 0.5\nsamples = 2\nvalue = [1, 1]", fillcolor="#ffffff"] ;
31 -> 33 ;
34 [label="gini = 0.0\nsamples = 1\nvalue = [1, 0]", fillcolor="#e58139"] ;
33 -> 34 ;
35 [label="gini = 0.0\nsamples = 1\nvalue = [0, 1]", fillcolor="#399de5"] ;
33 -> 35 ;
36 [label="adoption-of-the-budget-resolution <= 0.5\ngini = 0.466\nsamples = 27\nvalue = [10, 17]", fillcolor="#add7f4"] ;
22 -> 36 ;
37 [label="aid-to-nicaraguan-contras <= 0.5\ngini = 0.346\nsamples = 18\nvalue = [4, 14]", fillcolor="#72b9ec"] ;
36 -> 37 ;
38 [label="export-administration-act-south-africa <= 0.5\ngini = 0.219\nsamples = 16\nvalue = [2, 14]", fillcolor="#55abe9"] ;
37 -> 38 ;
39 [label="superfund-right-to-sue <= 0.5\ngini = 0.408\nsamples = 7\nvalue = [2, 5]", fillcolor="#88c4ef"] ;
38 -> 39 ;
40 [label="gini = 0.0\nsamples = 1\nvalue = [1, 0]", fillcolor="#e58139"] ;
39 -> 40 ;
41 [label="water-project-cost-sharing <= 0.5\ngini = 0.278\nsamples = 6\nvalue = [1, 5]", fillcolor="#61b1ea"] ;
39 -> 41 ;
42 [label="handicapped-infants <= 0.5\ngini = 0.5\nsamples = 2\nvalue = [1, 1]", fillcolor="#ffffff"] ;
41 -> 42 ;
43 [label="gini = 0.0\nsamples = 1\nvalue = [1, 0]", fillcolor="#e58139"] ;
42 -> 43 ;
44 [label="gini = 0.0\nsamples = 1\nvalue = [0, 1]", fillcolor="#399de5"] ;
42 -> 44 ;
45 [label="gini = 0.0\nsamples = 4\nvalue = [0, 4]", fillcolor="#399de5"] ;
41 -> 45 ;
46 [label="gini = 0.0\nsamples = 9\nvalue = [0, 9]", fillcolor="#399de5"] ;
38 -> 46 ;
47 [label="gini = 0.0\nsamples = 2\nvalue = [2, 0]", fillcolor="#e58139"] ;
37 -> 47 ;
48 [label="anti-satellite-test-ban <= 0.5\ngini = 0.444\nsamples = 9\nvalue = [6, 3]", fillcolor="#f2c09c"] ;
36 -> 48 ;
49 [label="gini = 0.0\nsamples = 6\nvalue = [6, 0]", fillcolor="#e58139"] ;
48 -> 49 ;
50 [label="gini = 0.0\nsamples = 3\nvalue = [0, 3]", fillcolor="#399de5"] ;
48 -> 50 ;
}