digraph Tree {
node [shape=box, style="filled, rounded", color="black", fontname="helvetica"] ;
edge [fontname="helvetica"] ;
0 [label="physician-fee-freeze <= 0.5\ngini = 0.477\nsamples = 347\nvalue = [211, 136]", fillcolor="#f6d2b9"] ;
1 [label="adoption-of-the-budget-resolution <= 0.5\ngini = 0.048\nsamples = 205\nvalue = [200, 5]", fillcolor="#e6843e"] ;
0 -> 1 [labeldistance=2.5, labelangle=45, headlabel="True"] ;
2 [label="water-project-cost-sharing <= 0.5\ngini = 0.188\nsamples = 19\nvalue = [17, 2]", fillcolor="#e89050"] ;
1 -> 2 ;
3 [label="education-spending <= 0.5\ngini = 0.408\nsamples = 7\nvalue = [5, 2]", fillcolor="#efb388"] ;
2 -> 3 ;
4 [label="export-administration-act-south-africa <= 0.5\ngini = 0.5\nsamples = 4\nvalue = [2, 2]", fillcolor="#ffffff"] ;
3 -> 4 ;
5 [label="gini = 0.0\nsamples = 1\nvalue = [1, 0]", fillcolor="#e58139"] ;
4 -> 5 ;
6 [label="crime <= 0.5\ngini = 0.444\nsamples = 3\nvalue = [1, 2]", fillcolor="#9ccef2"] ;
4 -> 6 ;
7 [label="gini = 0.0\nsamples = 1\nvalue = [1, 0]", fillcolor="#e58139"] ;
6 -> 7 ;
8 [label="gini = 0.0\nsamples = 2\nvalue = [0, 2]", fillcolor="#399de5"] ;
6 -> 8 ;
9 [label="gini = 0.0\nsamples = 3\nvalue = [3, 0]", fillcolor="#e58139"] ;
3 -> 9 ;
10 [label="gini = 0.0\nsamples = 12\nvalue = [12, 0]", fillcolor="#e58139"] ;
2 -> 10 ;
11 [label="superfund-right-to-sue <= 0.5\ngini = 0.032\nsamples = 186\nvalue = [183, 3]", fillcolor="#e5833c"] ;
1 -> 11 ;
12 [label="gini = 0.0\nsamples = 130\nvalue = [130, 0]", fillcolor="#e58139"] ;
11 -> 12 ;
13 [label="synfuels-corporation-cutback <= 0.5\ngini = 0.101\nsamples = 56\nvalue = [53, 3]", fillcolor="#e68844"] ;
11 -> 13 ;
14 [label="handicapped-infants <= 0.5\ngini = 0.198\nsamples = 27\nvalue = [24, 3]", fillcolor="#e89152"] ;
13 -> 14 ;
15 [label="education-spending <= 0.5\ngini = 0.355\nsamples = 13\nvalue = [10, 3]", fillcolor="#eda774"] ;
14 -> 15 ;
16 [label="el-salvador-aid <= 0.5\ngini = 0.278\nsamples = 12\nvalue = [10, 2]", fillcolor="#ea9a61"] ;
15 -> 16 ;
17 [label="gini = 0.0\nsamples = 8\nvalue = [8, 0]", fillcolor="#e58139"] ;
16 -> 17 ;
18 [label="anti-satellite-test-ban <= 0.5\ngini = 0.5\nsamples = 4\nvalue = [2, 2]", fillcolor="#ffffff"] ;
16 -> 18 ;
19 [label="gini = 0.0\nsamples = 2\nvalue = [2, 0]", fillcolor="#e58139"] ;
18 -> 19 ;
20 [label="gini = 0.0\nsamples = 2\nvalue = [0, 2]", fillcolor="#399de5"] ;
18 -> 20 ;
21 [label="gini = 0.0\nsamples = 1\nvalue = [0, 1]", fillcolor="#399de5"] ;
15 -> 21 ;
22 [label="gini = 0.0\nsamples = 14\nvalue = [14, 0]", fillcolor="#e58139"] ;
14 -> 22 ;
23 [label="gini = 0.0\nsamples = 29\nvalue = [29, 0]", fillcolor="#e58139"] ;
13 -> 23 ;
24 [label="synfuels-corporation-cutback <= 0.5\ngini = 0.143\nsamples = 142\nvalue = [11, 131]", fillcolor="#4aa5e7"] ;
0 -> 24 [labeldistance=2.5, labelangle=-45, headlabel="False"] ;
25 [label="duty-free-exports <= 0.5\ngini = 0.05\nsamples = 118\nvalue = [3, 115]", fillcolor="#3ea0e6"] ;
24 -> 25 ;
26 [label="adoption-of-the-budget-resolution <= 0.5\ngini = 0.019\nsamples = 106\nvalue = [1, 105]", fillcolor="#3b9ee5"] ;
25 -> 26 ;
27 [label="gini = 0.0\nsamples = 93\nvalue = [0, 93]", fillcolor="#399de5"] ;
26 -> 27 ;
28 [label="immigration <= 0.5\ngini = 0.142\nsamples = 13\nvalue = [1, 12]", fillcolor="#49a5e7"] ;
26 -> 28 ;
29 [label="water-project-cost-sharing <= 0.5\ngini = 0.444\nsamples = 3\nvalue = [1, 2]", fillcolor="#9ccef2"] ;
28 -> 29 ;
30 [label="gini = 0.0\nsamples = 2\nvalue = [0, 2]", fillcolor="#399de5"] ;
29 -> 30 ;
31 [label="gini = 0.0\nsamples = 1\nvalue = [1, 0]", fillcolor="#e58139"] ;
29 -> 31 ;
32 [label="gini = 0.0\nsamples = 10\nvalue = [0, 10]", fillcolor="#399de5"] ;
28 -> 32 ;
33 [label="immigration <= 0.5\ngini = 0.278\nsamples = 12\nvalue = [2, 10]", fillcolor="#61b1ea"] ;
25 -> 33 ;
34 [label="education-spending <= 0.5\ngini = 0.5\nsamples = 4\nvalue = [2, 2]", fillcolor="#ffffff"] ;
33 -> 34 ;
35 [label="aid-to-nicaraguan-contras <= 0.5\ngini = 0.444\nsamples = 3\nvalue = [2, 1]", fillcolor="#f2c09c"] ;
34 -> 35 ;
36 [label="gini = 0.0\nsamples = 2\nvalue = [2, 0]", fillcolor="#e58139"] ;
35 -> 36 ;
37 [label="gini = 0.0\nsamples = 1\nvalue = [0, 1]", fillcolor="#399de5"] ;
35 -> 37 ;
38 [label="gini = 0.0\nsamples = 1\nvalue = [0, 1]", fillcolor="#399de5"] ;
34 -> 38 ;
39 [label="gini = 0.0\nsamples = 8\nvalue = [0, 8]", fillcolor="#399de5"] ;
33 -> 39 ;
40 [label="mx-missile <= 0.5\ngini = 0.444\nsamples = 24\nvalue = [8, 16]", fillcolor="#9ccef2"] ;
24 -> 40 ;
41 [label="immigration <= 0.5\ngini = 0.32\nsamples = 20\nvalue = [4, 16]", fillcolor="#6ab6ec"] ;
40 -> 41 ;
42 [label="superfund-right-to-sue <= 0.5\ngini = 0.444\nsamples = 12\nvalue = [4, 8]", fillcolor="#9ccef2"] ;
41 -> 42 ;
43 [label="gini = 0.0\nsamples = 1\nvalue = [1, 0]", fillcolor="#e58139"] ;
42 -> 43 ;
44 [label="adoption-of-the-budget-resolution <= 0.5\ngini = 0.397\nsamples = 11\nvalue = [3, 8]", fillcolor="#83c2ef"] ;
42 -> 44 ;
45 [label="education-spending <= 0.5\ngini = 0.32\nsamples = 10\nvalue = [2, 8]", fillcolor="#6ab6ec"] ;
44 -> 45 ;
46 [label="gini = 0.5\nsamples = 2\nvalue = [1, 1]", fillcolor="#ffffff"] ;
45 -> 46 ;
47 [label="water-project-cost-sharing <= 0.5\ngini = 0.219\nsamples = 8\nvalue = [1, 7]", fillcolor="#55abe9"] ;
45 -> 47 ;
48 [label="export-administration-act-south-africa <= 0.5\ngini = 0.444\nsamples = 3\nvalue = [1, 2]", fillcolor="#9ccef2"] ;
47 -> 48 ;
49 [label="handicapped-infants <= 0.5\ngini = 0.5\nsamples = 2\nvalue = [1, 1]", fillcolor="#ffffff"] ;
48 -> 49 ;
50 [label="gini = 0.0\nsamples = 1\nvalue = [1, 0]", fillcolor="#e58139"] ;
49 -> 50 ;
51 [label="gini = 0.0\nsamples = 1\nvalue = [0, 1]", fillcolor="#399de5"] ;
49 -> 51 ;
52 [label="gini = 0.0\nsamples = 1\nvalue = [0, 1]", fillcolor="#399de5"] ;
48 -> 52 ;
53 [label="gini = 0.0\nsamples = 5\nvalue = [0, 5]", fillcolor="#399de5"] ;
47 -> 53 ;
54 [label="gini = 0.0\nsamples = 1\nvalue = [1, 0]", fillcolor="#e58139"] ;
44 -> 54 ;
55 [label="gini = 0.0\nsamples = 8\nvalue = [0, 8]", fillcolor="#399de5"] ;
41 -> 55 ;
56 [label="gini = 0.0\nsamples = 4\nvalue = [4, 0]", fillcolor="#e58139"] ;
40 -> 56 ;
}