digraph Tree {
node [shape=box, style="filled, rounded", color="black", fontname="helvetica"] ;
edge [fontname="helvetica"] ;
0 [label="physician-fee-freeze <= 0.5\ngini = 0.476\nsamples = 384\nvalue = [234, 150]", fillcolor="#f6d2b8"] ;
1 [label="adoption-of-the-budget-resolution <= 0.5\ngini = 0.043\nsamples = 228\nvalue = [223, 5]", fillcolor="#e6843d"] ;
0 -> 1 [labeldistance=2.5, labelangle=45, headlabel="True"] ;
2 [label="synfuels-corporation-cutback <= 0.5\ngini = 0.159\nsamples = 23\nvalue = [21, 2]", fillcolor="#e78d4c"] ;
1 -> 2 ;
3 [label="superfund-right-to-sue <= 0.5\ngini = 0.346\nsamples = 9\nvalue = [7, 2]", fillcolor="#eca572"] ;
2 -> 3 ;
4 [label="mx-missile <= 0.5\ngini = 0.444\nsamples = 6\nvalue = [4, 2]", fillcolor="#f2c09c"] ;
3 -> 4 ;
5 [label="gini = 0.0\nsamples = 1\nvalue = [0, 1]", fillcolor="#399de5"] ;
4 -> 5 ;
6 [label="religious-groups-in-schools <= 0.5\ngini = 0.32\nsamples = 5\nvalue = [4, 1]", fillcolor="#eca06a"] ;
4 -> 6 ;
7 [label="crime <= 0.5\ngini = 0.5\nsamples = 2\nvalue = [1, 1]", fillcolor="#ffffff"] ;
6 -> 7 ;
8 [label="gini = 0.0\nsamples = 1\nvalue = [1, 0]", fillcolor="#e58139"] ;
7 -> 8 ;
9 [label="gini = 0.0\nsamples = 1\nvalue = [0, 1]", fillcolor="#399de5"] ;
7 -> 9 ;
10 [label="gini = 0.0\nsamples = 3\nvalue = [3, 0]", fillcolor="#e58139"] ;
6 -> 10 ;
11 [label="gini = 0.0\nsamples = 3\nvalue = [3, 0]", fillcolor="#e58139"] ;
3 -> 11 ;
12 [label="gini = 0.0\nsamples = 14\nvalue = [14, 0]", fillcolor="#e58139"] ;
2 -> 12 ;
13 [label="superfund-right-to-sue <= 0.5\ngini = 0.029\nsamples = 205\nvalue = [202, 3]", fillcolor="#e5833c"] ;
1 -> 13 ;
14 [label="gini = 0.0\nsamples = 148\nvalue = [148, 0]", fillcolor="#e58139"] ;
13 -> 14 ;
15 [label="synfuels-corporation-cutback <= 0.5\ngini = 0.1\nsamples = 57\nvalue = [54, 3]", fillcolor="#e68844"] ;
13 -> 15 ;
16 [label="education-spending <= 0.5\ngini = 0.198\nsamples = 27\nvalue = [24, 3]", fillcolor="#e89152"] ;
15 -> 16 ;
17 [label="el-salvador-aid <= 0.5\ngini = 0.147\nsamples = 25\nvalue = [23, 2]", fillcolor="#e78c4a"] ;
16 -> 17 ;
18 [label="gini = 0.0\nsamples = 16\nvalue = [16, 0]", fillcolor="#e58139"] ;
17 -> 18 ;
19 [label="anti-satellite-test-ban <= 0.5\ngini = 0.346\nsamples = 9\nvalue = [7, 2]", fillcolor="#eca572"] ;
17 -> 19 ;
20 [label="gini = 0.0\nsamples = 5\nvalue = [5, 0]", fillcolor="#e58139"] ;
19 -> 20 ;
21 [label="handicapped-infants <= 0.5\ngini = 0.5\nsamples = 4\nvalue = [2, 2]", fillcolor="#ffffff"] ;
19 -> 21 ;
22 [label="gini = 0.0\nsamples = 2\nvalue = [0, 2]", fillcolor="#399de5"] ;
21 -> 22 ;
23 [label="gini = 0.0\nsamples = 2\nvalue = [2, 0]", fillcolor="#e58139"] ;
21 -> 23 ;
24 [label="water-project-cost-sharing <= 0.5\ngini = 0.5\nsamples = 2\nvalue = [1, 1]", fillcolor="#ffffff"] ;
16 -> 24 ;
25 [label="gini = 0.0\nsamples = 1\nvalue = [1, 0]", fillcolor="#e58139"] ;
24 -> 25 ;
26 [label="gini = 0.0\nsamples = 1\nvalue = [0, 1]", fillcolor="#399de5"] ;
24 -> 26 ;
27 [label="gini = 0.0\nsamples = 30\nvalue = [30, 0]", fillcolor="#e58139"] ;
15 -> 27 ;
28 [label="synfuels-corporation-cutback <= 0.5\ngini = 0.131\nsamples = 156\nvalue = [11, 145]", fillcolor="#48a4e7"] ;
0 -> 28 [labeldistance=2.5, labelangle=-45, headlabel="False"] ;
29 [label="duty-free-exports <= 0.5\ngini = 0.031\nsamples = 128\nvalue = [2, 126]", fillcolor="#3c9fe5"] ;
28 -> 29 ;
30 [label="adoption-of-the-budget-resolution <= 0.5\ngini = 0.017\nsamples = 116\nvalue = [1, 115]", fillcolor="#3b9ee5"] ;
29 -> 30 ;
31 [label="gini = 0.0\nsamples = 105\nvalue = [0, 105]", fillcolor="#399de5"] ;
30 -> 31 ;
32 [label="immigration <= 0.5\ngini = 0.165\nsamples = 11\nvalue = [1, 10]", fillcolor="#4da7e8"] ;
30 -> 32 ;
33 [label="anti-satellite-test-ban <= 0.5\ngini = 0.444\nsamples = 3\nvalue = [1, 2]", fillcolor="#9ccef2"] ;
32 -> 33 ;
34 [label="gini = 0.0\nsamples = 1\nvalue = [1, 0]", fillcolor="#e58139"] ;
33 -> 34 ;
35 [label="gini = 0.0\nsamples = 2\nvalue = [0, 2]", fillcolor="#399de5"] ;
33 -> 35 ;
36 [label="gini = 0.0\nsamples = 8\nvalue = [0, 8]", fillcolor="#399de5"] ;
32 -> 36 ;
37 [label="water-project-cost-sharing <= 0.5\ngini = 0.153\nsamples = 12\nvalue = [1, 11]", fillcolor="#4ba6e7"] ;
29 -> 37 ;
38 [label="gini = 0.0\nsamples = 10\nvalue = [0, 10]", fillcolor="#399de5"] ;
37 -> 38 ;
39 [label="anti-satellite-test-ban <= 0.5\ngini = 0.5\nsamples = 2\nvalue = [1, 1]", fillcolor="#ffffff"] ;
37 -> 39 ;
40 [label="gini = 0.0\nsamples = 1\nvalue = [1, 0]", fillcolor="#e58139"] ;
39 -> 40 ;
41 [label="gini = 0.0\nsamples = 1\nvalue = [0, 1]", fillcolor="#399de5"] ;
39 -> 41 ;
42 [label="adoption-of-the-budget-resolution <= 0.5\ngini = 0.436\nsamples = 28\nvalue = [9, 19]", fillcolor="#97cbf1"] ;
28 -> 42 ;
43 [label="mx-missile <= 0.5\ngini = 0.266\nsamples = 19\nvalue = [3, 16]", fillcolor="#5eafea"] ;
42 -> 43 ;
44 [label="immigration <= 0.5\ngini = 0.198\nsamples = 18\nvalue = [2, 16]", fillcolor="#52a9e8"] ;
43 -> 44 ;
45 [label="water-project-cost-sharing <= 0.5\ngini = 0.278\nsamples = 12\nvalue = [2, 10]", fillcolor="#61b1ea"] ;
44 -> 45 ;
46 [label="handicapped-infants <= 0.5\ngini = 0.444\nsamples = 3\nvalue = [1, 2]", fillcolor="#9ccef2"] ;
45 -> 46 ;
47 [label="export-administration-act-south-africa <= 0.5\ngini = 0.5\nsamples = 2\nvalue = [1, 1]", fillcolor="#ffffff"] ;
46 -> 47 ;
48 [label="gini = 0.0\nsamples = 1\nvalue = [1, 0]", fillcolor="#e58139"] ;
47 -> 48 ;
49 [label="gini = 0.0\nsamples = 1\nvalue = [0, 1]", fillcolor="#399de5"] ;
47 -> 49 ;
50 [label="gini = 0.0\nsamples = 1\nvalue = [0, 1]", fillcolor="#399de5"] ;
46 -> 50 ;
51 [label="education-spending <= 0.5\ngini = 0.198\nsamples = 9\nvalue = [1, 8]", fillcolor="#52a9e8"] ;
45 -> 51 ;
52 [label="handicapped-infants <= 0.5\ngini = 0.444\nsamples = 3\nvalue = [1, 2]", fillcolor="#9ccef2"] ;
51 -> 52 ;
53 [label="gini = 0.0\nsamples = 1\nvalue = [0, 1]", fillcolor="#399de5"] ;
52 -> 53 ;
54 [label="gini = 0.5\nsamples = 2\nvalue = [1, 1]", fillcolor="#ffffff"] ;
52 -> 54 ;
55 [label="gini = 0.0\nsamples = 6\nvalue = [0, 6]", fillcolor="#399de5"] ;
51 -> 55 ;
56 [label="gini = 0.0\nsamples = 6\nvalue = [0, 6]", fillcolor="#399de5"] ;
44 -> 56 ;
57 [label="gini = 0.0\nsamples = 1\nvalue = [1, 0]", fillcolor="#e58139"] ;
43 -> 57 ;
58 [label="anti-satellite-test-ban <= 0.5\ngini = 0.444\nsamples = 9\nvalue = [6, 3]", fillcolor="#f2c09c"] ;
42 -> 58 ;
59 [label="gini = 0.0\nsamples = 6\nvalue = [6, 0]", fillcolor="#e58139"] ;
58 -> 59 ;
60 [label="gini = 0.0\nsamples = 3\nvalue = [0, 3]", fillcolor="#399de5"] ;
58 -> 60 ;
}